{"graph_1": {"_type": "graph-file", "sha256": "b57fe58bdb6225c2cf57e3f851511f01720ce0e56ae696c99a98336591cc4cdd", "size": 484, "path": "media/graph/graph_1_summary_b57fe58bdb6225c2cf57.graph.json"}, "train_loss_epoch": 1.8452677726745605, "train_acc_epoch": 0.4982339143753052, "epoch_time": 0.04581403732299805, "train_roc_auc": 0.50523125, "epoch": 100, "trainer/global_step": 1300, "_timestamp": 1687698496.3741894, "_runtime": 6.417295455932617, "_step": 144, "train_loss_step": 3.134340763092041, "train_acc_step": 0.484375, "parameters/graph_1gnn.phi.net.weight": {"_type": "histogram", "values": [1.0, 0.0, 1.0, 0.0, 0.0, 2.0, 0.0, 0.0, 0.0, 0.0, 0.0, 0.0, 1.0, 0.0, 0.0, 0.0, 0.0, 0.0, 1.0, 0.0, 0.0, 2.0, 1.0, 0.0, 3.0, 0.0, 1.0, 1.0, 1.0, 1.0, 1.0, 2.0, 0.0, 0.0, 1.0, 0.0, 0.0, 0.0, 1.0, 1.0, 0.0, 1.0, 0.0, 1.0, 1.0, 2.0, 2.0, 1.0, 0.0, 0.0, 2.0, 0.0, 0.0, 0.0, 1.0, 0.0, 1.0, 1.0, 0.0, 0.0, 0.0, 0.0, 0.0, 1.0], "bins": [-0.43050163984298706, -0.41723063588142395, -0.40395963191986084, -0.3906886577606201, -0.377417653799057, -0.3641466498374939, -0.3508756458759308, -0.33760467171669006, -0.32433366775512695, -0.31106266379356384, -0.29779165983200073, -0.2845206558704376, -0.2712496817111969, -0.2579786777496338, -0.24470767378807068, -0.23143668472766876, -0.21816568076610565, -0.20489467680454254, -0.19162368774414062, -0.17835268378257751, -0.1650816947221756, -0.1518106907606125, -0.13853970170021057, -0.12526869773864746, -0.11199770122766495, -0.09872670471668243, -0.08545570820569992, -0.07218471169471741, -0.058913711458444595, -0.04564271494746208, -0.03237171471118927, -0.019100718200206757, -0.005829721689224243, 0.007441275753080845, 0.020712273195385933, 0.033983271569013596, 0.04725426807999611, 0.06052526459097862, 0.07379626482725143, 0.08706726133823395, 0.10033825784921646, 0.11360925436019897, 0.12688025832176208, 0.140151247382164, 0.1534222513437271, 0.16669324040412903, 0.17996424436569214, 0.19323523342609406, 0.20650623738765717, 0.21977724134922028, 0.2330482304096222, 0.2463192343711853, 0.2595902383327484, 0.27286121249198914, 0.28613221645355225, 0.29940322041511536, 0.31267422437667847, 0.3259452283382416, 0.3392162024974823, 0.3524872064590454, 0.3657582104206085, 0.37902921438217163, 0.39230018854141235, 0.40557119250297546, 0.4188421964645386]}, "parameters/graph_1gnn.phi.net.bias": {"_type": "histogram", "values": [1.0, 0.0, 1.0, 0.0, 0.0, 0.0, 0.0, 0.0, 0.0, 0.0, 0.0, 0.0, 0.0, 0.0, 0.0, 1.0, 0.0, 0.0, 0.0, 0.0, 0.0, 0.0, 0.0, 0.0, 0.0, 0.0, 0.0, 1.0, 0.0, 0.0, 0.0, 0.0, 0.0, 0.0, 0.0, 0.0, 0.0, 0.0, 0.0, 0.0, 0.0, 0.0, 0.0, 0.0, 0.0, 0.0, 0.0, 0.0, 0.0, 0.0, 0.0, 0.0, 0.0, 0.0, 1.0, 0.0, 0.0, 0.0, 0.0, 0.0, 0.0, 0.0, 0.0, 1.0], "bins": [-0.12954488396644592, -0.12095728516578674, -0.11236968636512756, -0.10378208756446838, -0.0951944887638092, -0.08660688996315002, -0.07801929116249084, -0.06943169236183167, -0.060844093561172485, -0.052256494760513306, -0.043668895959854126, -0.035081297159194946, -0.026493698358535767, -0.017906099557876587, -0.009318500757217407, -0.0007309019565582275, 0.007856696844100952, 0.016444295644760132, 0.02503189444541931, 0.03361949324607849, 0.04220709204673767, 0.05079469084739685, 0.05938228964805603, 0.06796988844871521, 0.07655748724937439, 0.08514508605003357, 0.09373268485069275, 0.10232028365135193, 0.11090788245201111, 0.11949548125267029, 0.12808308005332947, 0.13667067885398865, 0.14525827765464783, 0.153845876455307, 0.1624334752559662, 0.17102107405662537, 0.17960867285728455, 0.18819627165794373, 0.1967838704586029, 0.20537146925926208, 0.21395906805992126, 0.22254666686058044, 0.23113426566123962, 0.2397218644618988, 0.24830946326255798, 0.25689706206321716, 0.26548466086387634, 0.2740722596645355, 0.2826598584651947, 0.2912474572658539, 0.29983505606651306, 0.30842265486717224, 0.3170102536678314, 0.3255978524684906, 0.3341854512691498, 0.34277305006980896, 0.35136064887046814, 0.3599482476711273, 0.3685358464717865, 0.3771234452724457, 0.38571104407310486, 0.39429864287376404, 0.4028862416744232, 0.4114738404750824, 0.4200614392757416]}, "parameters/graph_1mlp.net.weight": {"_type": "histogram", "values": [2.0, 0.0, 0.0, 0.0, 0.0, 0.0, 0.0, 0.0, 0.0, 0.0, 0.0, 0.0, 0.0, 0.0, 0.0, 0.0, 0.0, 0.0, 0.0, 0.0, 0.0, 0.0, 0.0, 0.0, 0.0, 0.0, 0.0, 0.0, 0.0, 0.0, 0.0, 1.0, 0.0, 0.0, 0.0, 0.0, 0.0, 0.0, 0.0, 0.0, 0.0, 0.0, 0.0, 0.0, 0.0, 0.0, 1.0, 0.0, 0.0, 0.0, 0.0, 1.0, 0.0, 0.0, 0.0, 0.0, 0.0, 0.0, 0.0, 0.0, 0.0, 0.0, 0.0, 1.0], "bins": [-0.23388490080833435, -0.22578361630439758, -0.21768231689929962, -0.20958103239536285, -0.2014797329902649, -0.19337844848632812, -0.18527716398239136, -0.1771758645772934, -0.16907458007335663, -0.16097329556941986, -0.1528719961643219, -0.14477071166038513, -0.13666942715644836, -0.1285681277513504, -0.12046684324741364, -0.11236555129289627, -0.1042642593383789, -0.09616296738386154, -0.08806167542934418, -0.07996039092540741, -0.07185909897089005, -0.06375780701637268, -0.055656518787145615, -0.04755523055791855, -0.039453938603401184, -0.03135264664888382, -0.023251358419656754, -0.015150068327784538, -0.007048778235912323, 0.0010525118559598923, 0.009153801947832108, 0.017255092039704323, 0.02535635232925415, 0.033457644283771515, 0.04155893251299858, 0.04966022074222565, 0.05776151269674301, 0.06586280465126038, 0.07396408915519714, 0.08206538110971451, 0.09016667306423187, 0.09826796501874924, 0.1063692569732666, 0.11447054147720337, 0.12257183343172073, 0.1306731253862381, 0.13877440989017487, 0.14687570929527283, 0.1549769937992096, 0.16307827830314636, 0.17117957770824432, 0.1792808622121811, 0.18738216161727905, 0.19548344612121582, 0.2035847306251526, 0.21168603003025055, 0.21978731453418732, 0.22788859903812408, 0.23598989844322205, 0.2440911829471588, 0.2521924674510956, 0.26029375195503235, 0.2683950662612915, 0.27649635076522827, 0.28459763526916504]}, "parameters/graph_1mlp.net.bias": {"_type": "histogram", "values": [0.0, 0.0, 0.0, 0.0, 0.0, 0.0, 0.0, 0.0, 0.0, 0.0, 0.0, 0.0, 0.0, 0.0, 0.0, 0.0, 0.0, 0.0, 0.0, 0.0, 0.0, 0.0, 0.0, 0.0, 0.0, 0.0, 0.0, 0.0, 0.0, 0.0, 0.0, 1.0, 0.0, 0.0, 0.0, 0.0, 0.0, 0.0, 0.0, 0.0, 0.0, 0.0, 0.0, 0.0, 0.0, 0.0, 0.0, 0.0, 0.0, 0.0, 0.0, 0.0, 0.0, 0.0, 0.0, 0.0, 0.0, 0.0, 0.0, 0.0, 0.0, 0.0, 0.0, 0.0], "bins": [-0.08103030174970627, -0.08103030174970627, -0.08103030174970627, -0.08103030174970627, -0.08103030174970627, -0.08103030174970627, -0.08103030174970627, -0.08103030174970627, -0.08103030174970627, -0.08103030174970627, -0.08103030174970627, -0.08103030174970627, -0.08103030174970627, -0.08103030174970627, -0.08103030174970627, -0.08103030174970627, -0.08103030174970627, -0.08103030174970627, -0.08103030174970627, -0.08103030174970627, -0.08103030174970627, -0.08103030174970627, -0.08103030174970627, -0.08103030174970627, -0.08103030174970627, -0.08103030174970627, -0.08103030174970627, -0.08103030174970627, -0.08103030174970627, -0.08103030174970627, -0.08103030174970627, -0.08103030174970627, -0.08103030174970627, -0.08103030174970627, -0.08103030174970627, -0.08103030174970627, -0.08103030174970627, -0.08103030174970627, -0.08103030174970627, -0.08103030174970627, -0.08103030174970627, -0.08103030174970627, -0.08103030174970627, -0.08103030174970627, -0.08103030174970627, -0.08103030174970627, -0.08103030174970627, -0.08103030174970627, -0.08103030174970627, -0.08103030174970627, -0.08103030174970627, -0.08103030174970627, -0.08103030174970627, -0.08103030174970627, -0.08103030174970627, -0.08103030174970627, -0.08103030174970627, -0.08103030174970627, -0.08103030174970627, -0.08103030174970627, -0.08103030174970627, -0.08103030174970627, -0.08103030174970627, -0.08103030174970627, -0.08103030174970627]}, "gradients/graph_1mlp.net.bias": {"_type": "histogram", "values": [0.0, 0.0, 0.0, 0.0, 0.0, 0.0, 0.0, 0.0, 0.0, 0.0, 0.0, 0.0, 0.0, 0.0, 0.0, 0.0, 0.0, 0.0, 0.0, 0.0, 0.0, 0.0, 0.0, 0.0, 0.0, 0.0, 0.0, 0.0, 0.0, 0.0, 0.0, 0.0, 1.0, 0.0, 0.0, 0.0, 0.0, 0.0, 0.0, 0.0, 0.0, 0.0, 0.0, 0.0, 0.0, 0.0, 0.0, 0.0, 0.0, 0.0, 0.0, 0.0, 0.0, 0.0, 0.0, 0.0, 0.0, 0.0, 0.0, 0.0, 0.0, 0.0, 0.0, 0.0], "bins": [-0.0684700757265091, -0.0684700757265091, -0.0684700757265091, -0.0684700757265091, -0.0684700757265091, -0.0684700757265091, -0.0684700757265091, -0.0684700757265091, -0.0684700757265091, -0.0684700757265091, -0.0684700757265091, -0.0684700757265091, -0.0684700757265091, -0.0684700757265091, -0.0684700757265091, -0.0684700757265091, -0.0684700757265091, -0.0684700757265091, -0.0684700757265091, -0.0684700757265091, -0.0684700757265091, -0.0684700757265091, -0.0684700757265091, -0.0684700757265091, -0.0684700757265091, -0.0684700757265091, -0.0684700757265091, -0.0684700757265091, -0.0684700757265091, -0.0684700757265091, -0.0684700757265091, -0.0684700757265091, -0.0684700757265091, -0.0684700757265091, -0.0684700757265091, -0.0684700757265091, -0.0684700757265091, -0.0684700757265091, -0.0684700757265091, -0.0684700757265091, -0.0684700757265091, -0.0684700757265091, -0.0684700757265091, -0.0684700757265091, -0.0684700757265091, -0.0684700757265091, -0.0684700757265091, -0.0684700757265091, -0.0684700757265091, -0.0684700757265091, -0.0684700757265091, -0.0684700757265091, -0.0684700757265091, -0.0684700757265091, -0.0684700757265091, -0.0684700757265091, -0.0684700757265091, -0.0684700757265091, -0.0684700757265091, -0.0684700757265091, -0.0684700757265091, -0.0684700757265091, -0.0684700757265091, -0.0684700757265091, -0.0684700757265091]}, "gradients/graph_1mlp.net.weight": {"_type": "histogram", "values": [1.0, 0.0, 0.0, 0.0, 0.0, 0.0, 0.0, 0.0, 0.0, 0.0, 0.0, 0.0, 0.0, 0.0, 0.0, 0.0, 0.0, 0.0, 0.0, 0.0, 1.0, 1.0, 0.0, 0.0, 0.0, 0.0, 0.0, 0.0, 0.0, 1.0, 0.0, 0.0, 0.0, 0.0, 0.0, 0.0, 0.0, 0.0, 0.0, 0.0, 0.0, 0.0, 0.0, 0.0, 0.0, 0.0, 0.0, 0.0, 0.0, 0.0, 1.0, 0.0, 0.0, 0.0, 0.0, 0.0, 0.0, 0.0, 0.0, 0.0, 0.0, 0.0, 0.0, 1.0], "bins": [-392.68475341796875, -381.5499267578125, -370.4151306152344, -359.28033447265625, -348.1455078125, -337.01068115234375, -325.8758850097656, -314.7410888671875, -303.60626220703125, -292.471435546875, -281.3366394042969, -270.20184326171875, -259.0670166015625, -247.9322052001953, -236.79739379882812, -225.66258239746094, -214.52777099609375, -203.39295959472656, -192.25814819335938, -181.1233367919922, -169.988525390625, -158.8537139892578, -147.71890258789062, -136.58409118652344, -125.44927978515625, -114.31446838378906, -103.17965698242188, -92.04484558105469, -80.9100341796875, -69.77522277832031, -58.640411376953125, -47.50559997558594, -36.370758056640625, -25.235946655273438, -14.10113525390625, -2.9663238525390625, 8.168487548828125, 19.303298950195312, 30.4381103515625, 41.57292175292969, 52.707733154296875, 63.84254455566406, 74.97735595703125, 86.11216735839844, 97.24697875976562, 108.38179016113281, 119.5166015625, 130.6514129638672, 141.78622436523438, 152.92103576660156, 164.05584716796875, 175.19065856933594, 186.32546997070312, 197.4602813720703, 208.5950927734375, 219.7299041748047, 230.86471557617188, 241.99952697753906, 253.13433837890625, 264.2691650390625, 275.4039611816406, 286.53875732421875, 297.673583984375, 308.80841064453125, 319.9432067871094]}, "gradients/graph_1gnn.phi.net.bias": {"_type": "histogram", "values": [1.0, 0.0, 0.0, 0.0, 0.0, 0.0, 0.0, 0.0, 0.0, 0.0, 0.0, 0.0, 1.0, 0.0, 0.0, 0.0, 0.0, 1.0, 0.0, 0.0, 0.0, 0.0, 0.0, 0.0, 0.0, 0.0, 0.0, 0.0, 0.0, 0.0, 0.0, 0.0, 1.0, 0.0, 0.0, 0.0, 0.0, 0.0, 0.0, 0.0, 0.0, 0.0, 0.0, 0.0, 0.0, 0.0, 0.0, 0.0, 0.0, 0.0, 0.0, 0.0, 0.0, 0.0, 0.0, 0.0, 0.0, 0.0, 0.0, 0.0, 0.0, 0.0, 0.0, 2.0], "bins": [-5.180349349975586, -5.032886505126953, -4.8854241371154785, -4.737961292266846, -4.590498924255371, -4.443036079406738, -4.295573711395264, -4.148110866546631, -4.000648498535156, -3.8531856536865234, -3.7057230472564697, -3.558260440826416, -3.4107978343963623, -3.2633352279663086, -3.115872621536255, -2.968410015106201, -2.8209474086761475, -2.6734848022460938, -2.52602219581604, -2.3785595893859863, -2.2310969829559326, -2.083634376525879, -1.9361716508865356, -1.788709044456482, -1.6412464380264282, -1.4937838315963745, -1.3463212251663208, -1.198858618736267, -1.0513958930969238, -0.9039333462715149, -0.7564706802368164, -0.6090080738067627, -0.461545467376709, -0.3140828609466553, -0.16662022471427917, -0.01915760338306427, 0.12830501794815063, 0.27576762437820435, 0.42323026061058044, 0.5706928968429565, 0.7181555032730103, 0.865618109703064, 1.0130807161331177, 1.1605433225631714, 1.3080060482025146, 1.4554686546325684, 1.602931261062622, 1.7503938674926758, 1.8978564739227295, 2.045319080352783, 2.192781686782837, 2.3402442932128906, 2.4877068996429443, 2.635169506072998, 2.7826321125030518, 2.9300947189331055, 3.0775575637817383, 3.225020170211792, 3.3724827766418457, 3.5199453830718994, 3.667407989501953, 3.814870595932007, 3.9623332023620605, 4.109795570373535, 4.257258415222168]}, "gradients/graph_1gnn.phi.net.weight": {"_type": "histogram", "values": [2.0, 0.0, 0.0, 0.0, 0.0, 0.0, 0.0, 0.0, 0.0, 0.0, 0.0, 0.0, 2.0, 0.0, 0.0, 0.0, 0.0, 2.0, 0.0, 0.0, 0.0, 0.0, 0.0, 0.0, 0.0, 0.0, 0.0, 0.0, 0.0, 0.0, 0.0, 0.0, 2.0, 0.0, 6.0, 18.0, 0.0, 0.0, 0.0, 0.0, 0.0, 0.0, 0.0, 0.0, 0.0, 0.0, 0.0, 0.0, 0.0, 0.0, 0.0, 0.0, 0.0, 0.0, 0.0, 0.0, 0.0, 0.0, 0.0, 0.0, 0.0, 0.0, 0.0, 4.0], "bins": [-304.2637939453125, -295.6026916503906, -286.9416198730469, -278.280517578125, -269.6194152832031, -260.9583435058594, -252.2972412109375, -243.63613891601562, -234.9750518798828, -226.31396484375, -217.65286254882812, -208.9917755126953, -200.3306884765625, -191.66958618164062, -183.0084991455078, -174.34739685058594, -165.68630981445312, -157.0252227783203, -148.36412048339844, -139.70303344726562, -131.04193115234375, -122.38084411621094, -113.71975708007812, -105.05866241455078, -96.39756774902344, -87.7364730834961, -79.07537841796875, -70.41429138183594, -61.753196716308594, -53.09210205078125, -44.43101119995117, -35.769920349121094, -27.108840942382812, -18.4477481842041, -9.78665542602539, -1.1255626678466797, 7.535530090332031, 16.196622848510742, 24.857715606689453, 33.51880645751953, 42.179901123046875, 50.84099578857422, 59.5020866394043, 68.16317749023438, 76.82427215576172, 85.48536682128906, 94.14645385742188, 102.80754852294922, 111.46864318847656, 120.1297378540039, 128.79083251953125, 137.45191955566406, 146.11300659179688, 154.77410888671875, 163.43519592285156, 172.09629821777344, 180.75738525390625, 189.41847229003906, 198.07957458496094, 206.74066162109375, 215.40176391601562, 224.06285095214844, 232.72393798828125, 241.38504028320312, 250.04612731933594]}, "test_acc_step": 1.0, "test_acc_epoch": 0.5194827318191528, "test_roc_auc": 0.6803, "_wandb": {"runtime": 5}}