{"graph_0": {"_type": "graph-file", "sha256": "4d0402faa5db5b2fd7a3a04faf6116dbcdf706ff56e673b91282eb581d6f68dc", "size": 484, "path": "media/graph/graph_0_summary_4d0402faa5db5b2fd7a3.graph.json"}, "train_loss_epoch": 3.0262181758880615, "train_acc_epoch": 0.5073044300079346, "epoch_time": 0.0480043888092041, "train_roc_auc": 0.528440625, "epoch": 100, "trainer/global_step": 1300, "_timestamp": 1687699144.077201, "_runtime": 6.143599987030029, "_step": 144, "train_loss_step": 3.2182846069335938, "train_acc_step": 0.484375, "parameters/gnn.phi.net.weight": {"_type": "histogram", "values": [1.0, 0.0, 0.0, 0.0, 0.0, 0.0, 1.0, 1.0, 1.0, 0.0, 2.0, 1.0, 2.0, 0.0, 0.0, 1.0, 1.0, 0.0, 1.0, 0.0, 2.0, 0.0, 1.0, 2.0, 0.0, 1.0, 1.0, 0.0, 2.0, 0.0, 2.0, 0.0, 0.0, 0.0, 0.0, 2.0, 0.0, 1.0, 0.0, 1.0, 0.0, 0.0, 0.0, 1.0, 1.0, 0.0, 1.0, 0.0, 1.0, 0.0, 0.0, 1.0, 0.0, 0.0, 0.0, 1.0, 1.0, 0.0, 1.0, 0.0, 0.0, 0.0, 0.0, 1.0], "bins": [-0.42728906869888306, -0.41405096650123596, -0.4008128345012665, -0.3875747323036194, -0.3743366301059723, -0.3610984981060028, -0.3478603959083557, -0.3346222937107086, -0.32138416171073914, -0.30814605951309204, -0.29490795731544495, -0.28166982531547546, -0.26843172311782837, -0.2551936209201813, -0.2419554889202118, -0.2287173867225647, -0.2154792696237564, -0.20224115252494812, -0.18900305032730103, -0.17576493322849274, -0.16252681612968445, -0.14928871393203735, -0.13605059683322906, -0.12281247973442078, -0.10957437008619308, -0.0963362604379654, -0.0830981433391571, -0.06986003369092941, -0.05662192031741142, -0.04338380694389343, -0.030145695433020592, -0.01690758392214775, -0.0036694705486297607, 0.009568641893565655, 0.02280675433576107, 0.03604486584663391, 0.0492829792201519, 0.06252109259366989, 0.07575920224189758, 0.08899731934070587, 0.10223542898893356, 0.11547353863716125, 0.12871165573596954, 0.14194977283477783, 0.15518787503242493, 0.16842599213123322, 0.1816641092300415, 0.1949022114276886, 0.2081403285264969, 0.22137844562530518, 0.23461654782295227, 0.24785466492176056, 0.26109278202056885, 0.27433088421821594, 0.2875690162181854, 0.3008071184158325, 0.3140452206134796, 0.3272833526134491, 0.3405214548110962, 0.3537595570087433, 0.36699768900871277, 0.38023579120635986, 0.39347389340400696, 0.40671202540397644, 0.41995012760162354]}, "parameters/gnn.phi.net.bias": {"_type": "histogram", "values": [1.0, 0.0, 0.0, 0.0, 0.0, 0.0, 0.0, 0.0, 0.0, 0.0, 1.0, 0.0, 0.0, 0.0, 0.0, 0.0, 0.0, 0.0, 0.0, 0.0, 1.0, 0.0, 0.0, 0.0, 0.0, 0.0, 1.0, 0.0, 0.0, 0.0, 0.0, 0.0, 0.0, 0.0, 0.0, 0.0, 0.0, 0.0, 0.0, 0.0, 0.0, 0.0, 0.0, 0.0, 0.0, 0.0, 0.0, 0.0, 0.0, 0.0, 0.0, 0.0, 0.0, 0.0, 0.0, 0.0, 0.0, 0.0, 0.0, 0.0, 1.0, 0.0, 0.0, 1.0], "bins": [-0.08322964608669281, -0.07891116291284561, -0.07459267228841782, -0.07027418911457062, -0.06595569849014282, -0.061637215316295624, -0.057318732142448425, -0.05300024524331093, -0.04868175834417343, -0.044363271445035934, -0.04004478454589844, -0.03572630137205124, -0.03140781447291374, -0.027089327573776245, -0.022770842537283897, -0.01845235750079155, -0.014133870601654053, -0.00981538463383913, -0.005496898666024208, -0.0011784126982092857, 0.0031400732696056366, 0.007458559237420559, 0.011777045205235481, 0.01609553024172783, 0.020414017140865326, 0.024732504040002823, 0.02905098907649517, 0.03336947411298752, 0.037687961012125015, 0.04200644791126251, 0.04632493108510971, 0.05064341798424721, 0.054961904883384705, 0.0592803917825222, 0.0635988786816597, 0.0679173618555069, 0.07223585247993469, 0.07655433565378189, 0.08087281882762909, 0.08519130945205688, 0.08950979262590408, 0.09382827579975128, 0.09814676642417908, 0.10246524959802628, 0.10678373277187347, 0.11110222339630127, 0.11542070657014847, 0.11973919719457626, 0.12405768036842346, 0.12837617099285126, 0.13269464671611786, 0.13701313734054565, 0.14133162796497345, 0.14565010368824005, 0.14996859431266785, 0.15428708493709564, 0.15860557556152344, 0.16292405128479004, 0.16724254190921783, 0.17156103253364563, 0.17587950825691223, 0.18019799888134003, 0.18451648950576782, 0.18883496522903442, 0.19315345585346222]}, "parameters/mlp.net.weight": {"_type": "histogram", "values": [2.0, 0.0, 0.0, 0.0, 0.0, 0.0, 0.0, 0.0, 0.0, 0.0, 0.0, 0.0, 0.0, 0.0, 0.0, 0.0, 0.0, 0.0, 0.0, 0.0, 1.0, 0.0, 0.0, 0.0, 0.0, 0.0, 0.0, 0.0, 0.0, 0.0, 0.0, 0.0, 0.0, 0.0, 0.0, 0.0, 0.0, 0.0, 0.0, 0.0, 0.0, 1.0, 0.0, 0.0, 0.0, 0.0, 0.0, 0.0, 0.0, 0.0, 0.0, 0.0, 0.0, 0.0, 0.0, 0.0, 0.0, 0.0, 0.0, 0.0, 0.0, 1.0, 0.0, 1.0], "bins": [-0.33188584446907043, -0.3232560455799103, -0.31462621688842773, -0.3059964179992676, -0.29736658930778503, -0.2887367904186249, -0.28010696172714233, -0.2714771628379822, -0.262847363948822, -0.2542175352573395, -0.24558772146701813, -0.23695790767669678, -0.22832810878753662, -0.21969829499721527, -0.21106848120689392, -0.20243866741657257, -0.19380885362625122, -0.18517903983592987, -0.17654922604560852, -0.16791941225528717, -0.15928959846496582, -0.15065979957580566, -0.14202998578548431, -0.13340017199516296, -0.12477035820484161, -0.11614054441452026, -0.10751073062419891, -0.09888092428445816, -0.09025111049413681, -0.08162129670381546, -0.07299149036407471, -0.06436167657375336, -0.05573186278343201, -0.04710204899311066, -0.038472238928079605, -0.029842427000403404, -0.021212615072727203, -0.012582803145051003, -0.003952991217374802, 0.004676820710301399, 0.0133066326379776, 0.0219364445656538, 0.030566256493330002, 0.03919606655836105, 0.047825880348682404, 0.056455694139003754, 0.0650855004787445, 0.07371531426906586, 0.08234512805938721, 0.09097494184970856, 0.09960475564002991, 0.10823456197977066, 0.11686437577009201, 0.12549418210983276, 0.1341239959001541, 0.14275380969047546, 0.15138362348079681, 0.16001343727111816, 0.16864325106143951, 0.17727306485176086, 0.18590286374092102, 0.19453267753124237, 0.20316249132156372, 0.21179230511188507, 0.22042211890220642]}, "parameters/mlp.net.bias": {"_type": "histogram", "values": [0.0, 0.0, 0.0, 0.0, 0.0, 0.0, 0.0, 0.0, 0.0, 0.0, 0.0, 0.0, 0.0, 0.0, 0.0, 0.0, 0.0, 0.0, 0.0, 0.0, 0.0, 0.0, 0.0, 0.0, 0.0, 0.0, 0.0, 0.0, 0.0, 0.0, 0.0, 1.0, 0.0, 0.0, 0.0, 0.0, 0.0, 0.0, 0.0, 0.0, 0.0, 0.0, 0.0, 0.0, 0.0, 0.0, 0.0, 0.0, 0.0, 0.0, 0.0, 0.0, 0.0, 0.0, 0.0, 0.0, 0.0, 0.0, 0.0, 0.0, 0.0, 0.0, 0.0, 0.0], "bins": [-0.06655780225992203, -0.06655780225992203, -0.06655780225992203, -0.06655780225992203, -0.06655780225992203, -0.06655780225992203, -0.06655780225992203, -0.06655780225992203, -0.06655780225992203, -0.06655780225992203, -0.06655780225992203, -0.06655780225992203, -0.06655780225992203, -0.06655780225992203, -0.06655780225992203, -0.06655780225992203, -0.06655780225992203, -0.06655780225992203, -0.06655780225992203, -0.06655780225992203, -0.06655780225992203, -0.06655780225992203, -0.06655780225992203, -0.06655780225992203, -0.06655780225992203, -0.06655780225992203, -0.06655780225992203, -0.06655780225992203, -0.06655780225992203, -0.06655780225992203, -0.06655780225992203, -0.06655780225992203, -0.06655780225992203, -0.06655780225992203, -0.06655780225992203, -0.06655780225992203, -0.06655780225992203, -0.06655780225992203, -0.06655780225992203, -0.06655780225992203, -0.06655780225992203, -0.06655780225992203, -0.06655780225992203, -0.06655780225992203, -0.06655780225992203, -0.06655780225992203, -0.06655780225992203, -0.06655780225992203, -0.06655780225992203, -0.06655780225992203, -0.06655780225992203, -0.06655780225992203, -0.06655780225992203, -0.06655780225992203, -0.06655780225992203, -0.06655780225992203, -0.06655780225992203, -0.06655780225992203, -0.06655780225992203, -0.06655780225992203, -0.06655780225992203, -0.06655780225992203, -0.06655780225992203, -0.06655780225992203, -0.06655780225992203]}, "gradients/mlp.net.bias": {"_type": "histogram", "values": [0.0, 0.0, 0.0, 0.0, 0.0, 0.0, 0.0, 0.0, 0.0, 0.0, 0.0, 0.0, 0.0, 0.0, 0.0, 0.0, 0.0, 0.0, 0.0, 0.0, 0.0, 0.0, 0.0, 0.0, 0.0, 0.0, 0.0, 0.0, 0.0, 0.0, 0.0, 1.0, 0.0, 0.0, 0.0, 0.0, 0.0, 0.0, 0.0, 0.0, 0.0, 0.0, 0.0, 0.0, 0.0, 0.0, 0.0, 0.0, 0.0, 0.0, 0.0, 0.0, 0.0, 0.0, 0.0, 0.0, 0.0, 0.0, 0.0, 0.0, 0.0, 0.0, 0.0, 0.0], "bins": [-0.4556577801704407, -0.4556577801704407, -0.4556577801704407, -0.4556577801704407, -0.4556577801704407, -0.4556577801704407, -0.4556577801704407, -0.4556577801704407, -0.4556577801704407, -0.4556577801704407, -0.4556577801704407, -0.4556577801704407, -0.4556577801704407, -0.4556577801704407, -0.4556577801704407, -0.4556577801704407, -0.4556577801704407, -0.4556577801704407, -0.4556577801704407, -0.4556577801704407, -0.4556577801704407, -0.4556577801704407, -0.4556577801704407, -0.4556577801704407, -0.4556577801704407, -0.4556577801704407, -0.4556577801704407, -0.4556577801704407, -0.4556577801704407, -0.4556577801704407, -0.4556577801704407, -0.4556577801704407, -0.4556577801704407, -0.4556577801704407, -0.4556577801704407, -0.4556577801704407, -0.4556577801704407, -0.4556577801704407, -0.4556577801704407, -0.4556577801704407, -0.4556577801704407, -0.4556577801704407, -0.4556577801704407, -0.4556577801704407, -0.4556577801704407, -0.4556577801704407, -0.4556577801704407, -0.4556577801704407, -0.4556577801704407, -0.4556577801704407, -0.4556577801704407, -0.4556577801704407, -0.4556577801704407, -0.4556577801704407, -0.4556577801704407, -0.4556577801704407, -0.4556577801704407, -0.4556577801704407, -0.4556577801704407, -0.4556577801704407, -0.4556577801704407, -0.4556577801704407, -0.4556577801704407, -0.4556577801704407, -0.4556577801704407]}, "gradients/mlp.net.weight": {"_type": "histogram", "values": [1.0, 0.0, 0.0, 0.0, 1.0, 0.0, 0.0, 0.0, 0.0, 0.0, 0.0, 0.0, 0.0, 0.0, 0.0, 0.0, 0.0, 0.0, 0.0, 0.0, 0.0, 0.0, 0.0, 0.0, 0.0, 0.0, 0.0, 0.0, 0.0, 0.0, 0.0, 0.0, 0.0, 1.0, 0.0, 0.0, 0.0, 0.0, 0.0, 0.0, 1.0, 0.0, 0.0, 0.0, 0.0, 0.0, 0.0, 0.0, 0.0, 0.0, 0.0, 0.0, 1.0, 0.0, 0.0, 0.0, 0.0, 0.0, 0.0, 0.0, 0.0, 0.0, 0.0, 1.0], "bins": [-161.4570770263672, -115.28781127929688, -69.11853790283203, -22.949268341064453, 23.220001220703125, 69.38926696777344, 115.55854034423828, 161.72781372070312, 207.89707946777344, 254.06634521484375, 300.2356262207031, 346.4048767089844, 392.57415771484375, 438.7434387207031, 484.9126892089844, 531.0819702148438, 577.251220703125, 623.4205322265625, 669.5897827148438, 715.759033203125, 761.9283447265625, 808.0975952148438, 854.266845703125, 900.4360961914062, 946.6054077148438, 992.774658203125, 1038.9439697265625, 1085.1131591796875, 1131.282470703125, 1177.4517822265625, 1223.6209716796875, 1269.790283203125, 1315.9595947265625, 1362.12890625, 1408.298095703125, 1454.4674072265625, 1500.63671875, 1546.805908203125, 1592.9752197265625, 1639.14453125, 1685.313720703125, 1731.4830322265625, 1777.65234375, 1823.821533203125, 1869.9908447265625, 1916.16015625, 1962.329345703125, 2008.4986572265625, 2054.66796875, 2100.837158203125, 2147.00634765625, 2193.17578125, 2239.344970703125, 2285.51416015625, 2331.68359375, 2377.852783203125, 2424.02197265625, 2470.19140625, 2516.360595703125, 2562.52978515625, 2608.69921875, 2654.868408203125, 2701.03759765625, 2747.20703125, 2793.376220703125]}, "gradients/gnn.phi.net.bias": {"_type": "histogram", "values": [1.0, 0.0, 1.0, 0.0, 0.0, 0.0, 0.0, 0.0, 0.0, 0.0, 0.0, 0.0, 0.0, 0.0, 0.0, 0.0, 0.0, 0.0, 0.0, 0.0, 0.0, 0.0, 1.0, 0.0, 0.0, 0.0, 0.0, 0.0, 0.0, 0.0, 0.0, 0.0, 0.0, 0.0, 0.0, 0.0, 0.0, 0.0, 0.0, 0.0, 0.0, 0.0, 0.0, 1.0, 0.0, 0.0, 0.0, 0.0, 0.0, 0.0, 0.0, 0.0, 0.0, 0.0, 0.0, 0.0, 0.0, 0.0, 0.0, 0.0, 0.0, 0.0, 0.0, 2.0], "bins": [-15.625922203063965, -15.01414680480957, -14.402372360229492, -13.790596961975098, -13.178821563720703, -12.567047119140625, -11.95527172088623, -11.343496322631836, -10.731721878051758, -10.119946479797363, -9.508171081542969, -8.896395683288574, -8.284621238708496, -7.672845840454102, -7.061070919036865, -6.449295520782471, -5.837520599365234, -5.225745677947998, -4.6139702796936035, -4.002195358276367, -3.3904201984405518, -2.7786450386047363, -2.1668701171875, -1.5550949573516846, -0.9433197975158691, -0.3315446972846985, 0.28023040294647217, 0.8920055031776428, 1.5037806034088135, 2.115555763244629, 2.7273306846618652, 3.3391058444976807, 3.9508819580078125, 4.562656879425049, 5.174432277679443, 5.78620719909668, 6.397982597351074, 7.0097575187683105, 7.621532440185547, 8.233307838439941, 8.845083236694336, 9.456857681274414, 10.068633079528809, 10.680408477783203, 11.292182922363281, 11.903958320617676, 12.51573371887207, 13.127508163452148, 13.739283561706543, 14.351058959960938, 14.962833404541016, 15.57460880279541, 16.186384201049805, 16.798158645629883, 17.409934997558594, 18.021709442138672, 18.63348388671875, 19.24526023864746, 19.85703468322754, 20.468809127807617, 21.080585479736328, 21.692359924316406, 22.304134368896484, 22.915910720825195, 23.527685165405273]}, "gradients/gnn.phi.net.weight": {"_type": "histogram", "values": [2.0, 0.0, 2.0, 0.0, 0.0, 0.0, 0.0, 0.0, 0.0, 0.0, 0.0, 0.0, 0.0, 0.0, 0.0, 0.0, 0.0, 0.0, 0.0, 0.0, 0.0, 0.0, 2.0, 0.0, 0.0, 24.0, 0.0, 0.0, 0.0, 0.0, 0.0, 0.0, 0.0, 0.0, 0.0, 0.0, 0.0, 0.0, 0.0, 0.0, 0.0, 0.0, 0.0, 2.0, 0.0, 0.0, 0.0, 0.0, 0.0, 0.0, 0.0, 0.0, 0.0, 0.0, 0.0, 0.0, 0.0, 0.0, 0.0, 0.0, 0.0, 0.0, 0.0, 4.0], "bins": [-1370.0198974609375, -1316.3818359375, -1262.743896484375, -1209.1058349609375, -1155.4678955078125, -1101.829833984375, -1048.19189453125, -994.5538330078125, -940.9158325195312, -887.27783203125, -833.6398315429688, -780.0018310546875, -726.36376953125, -672.7257690429688, -619.0877685546875, -565.4497680664062, -511.811767578125, -458.17376708984375, -404.5357666015625, -350.8977355957031, -297.2597351074219, -243.62173461914062, -189.9837188720703, -136.345703125, -82.70770263671875, -29.06969451904297, 24.568313598632812, 78.2063217163086, 131.84432983398438, 185.48233032226562, 239.12034606933594, 292.75836181640625, 346.396240234375, 400.03424072265625, 453.6722412109375, 507.3102722167969, 560.9482421875, 614.5863037109375, 668.2243041992188, 721.8623046875, 775.5003051757812, 829.1383056640625, 882.7763061523438, 936.414306640625, 990.0523681640625, 1043.6903076171875, 1097.328369140625, 1150.96630859375, 1204.6043701171875, 1258.242431640625, 1311.88037109375, 1365.5184326171875, 1419.1563720703125, 1472.79443359375, 1526.432373046875, 1580.0704345703125, 1633.70849609375, 1687.346435546875, 1740.9844970703125, 1794.6224365234375, 1848.260498046875, 1901.8984375, 1955.5364990234375, 2009.1744384765625, 2062.8125]}, "test_acc_step": 1.0, "test_acc_epoch": 0.5204370021820068, "test_roc_auc": 0.6668999999999999, "_wandb": {"runtime": 5}}